<?xml version="1.0"?>
<opencv_storage>
<cascade>
  <stageType>BOOST</stageType>
  <featureType>HAAR</featureType>
  <height>20</height>
  <width>20</width>
  <stageParams>
    <boostType>GAB</boostType>
    <minHitRate>9.9500000476837158e-01</minHitRate>
    <maxFalseAlarm>1.0000000149011612e-01</maxFalseAlarm>
    <weightTrimRate>9.4999999999999996e-01</weightTrimRate>
    <maxDepth>1</maxDepth>
    <maxWeakCount>100</maxWeakCount></stageParams>
  <featureParams>
    <maxCatCount>0</maxCatCount>
    <featSize>1</featSize>
    <mode>BASIC</mode></featureParams>
  <stageNum>6</stageNum>
  <stages>
    <!-- stage 0 -->
    <_>
      <maxWeakCount>1</maxWeakCount>
      <stageThreshold>9.8224651813507080e-01</stageThreshold>
      <weakClassifiers>
        <_>
          <internalNodes>
            0 -1 3 -1.2695163488388062e-01</internalNodes>
          <leafValues>
            9.8224651813507080e-01 -9.8978549242019653e-01</leafValues></_></weakClassifiers></_>
    <!-- stage 1 -->
    <_>
      <maxWeakCount>2</maxWeakCount>
      <stageThreshold>-5.6996386498212814e-02</stageThreshold>
      <weakClassifiers>
        <_>
          <internalNodes>
            0 -1 6 -2.1944971382617950e-01</internalNodes>
          <leafValues>
            9.6833771467208862e-01 -9.8373985290527344e-01</leafValues></_>
        <_>
          <internalNodes>
            0 -1 9 -7.3142684996128082e-02</internalNodes>
          <leafValues>
            9.2674344778060913e-01 -9.6681380271911621e-01</leafValues></_></weakClassifiers></_>
    <!-- stage 2 -->
    <_>
      <maxWeakCount>3</maxWeakCount>
      <stageThreshold>-9.5876413583755493e-01</stageThreshold>
      <weakClassifiers>
        <_>
          <internalNodes>
            0 -1 18 2.5538049638271332e-02</internalNodes>
          <leafValues>
            -9.5978838205337524e-01 9.0482312440872192e-01</leafValues></_>
        <_>
          <internalNodes>
            0 -1 4 1.2706868350505829e-02</internalNodes>
          <leafValues>
            -9.4884347915649414e-01 8.8919323682785034e-01</leafValues></_>
        <_>
          <internalNodes>
            0 -1 1 3.6559574306011200e-02</internalNodes>
          <leafValues>
            -9.1474384069442749e-01 8.6900925636291504e-01</leafValues></_></weakClassifiers></_>
    <!-- stage 3 -->
    <_>
      <maxWeakCount>4</maxWeakCount>
      <stageThreshold>-2.0680160820484161e-01</stageThreshold>
      <weakClassifiers>
        <_>
          <internalNodes>
            0 -1 10 1.8493365496397018e-02</internalNodes>
          <leafValues>
            -9.7356826066970825e-01 8.6934673786163330e-01</leafValues></_>
        <_>
          <internalNodes>
            0 -1 5 -1.1032450944185257e-02</internalNodes>
          <leafValues>
            8.4746289253234863e-01 -9.5346093177795410e-01</leafValues></_>
        <_>
          <internalNodes>
            0 -1 14 3.3829957246780396e-02</internalNodes>
          <leafValues>
            -8.6787682771682739e-01 8.7492781877517700e-01</leafValues></_>
        <_>
          <internalNodes>
            0 -1 15 1.5044560655951500e-02</internalNodes>
          <leafValues>
            -8.7948560714721680e-01 7.8718060255050659e-01</leafValues></_></weakClassifiers></_>
    <!-- stage 4 -->
    <_>
      <maxWeakCount>4</maxWeakCount>
      <stageThreshold>-1.6210831701755524e-01</stageThreshold>
      <weakClassifiers>
        <_>
          <internalNodes>
            0 -1 0 1.1400048620998859e-02</internalNodes>
          <leafValues>
            -9.2443919181823730e-01 7.7616453170776367e-01</leafValues></_>
        <_>
          <internalNodes>
            0 -1 13 2.8227526694536209e-02</internalNodes>
          <leafValues>
            -6.9926202297210693e-01 9.6654528379440308e-01</leafValues></_>
        <_>
          <internalNodes>
            0 -1 16 -3.1950861215591431e-02</internalNodes>
          <leafValues>
            7.4454981088638306e-01 -9.3595510721206665e-01</leafValues></_>
        <_>
          <internalNodes>
            0 -1 8 -1.7118204385042191e-02</internalNodes>
          <leafValues>
            6.9694429636001587e-01 -8.7841057777404785e-01</leafValues></_></weakClassifiers></_>
    <!-- stage 5 -->
    <_>
      <maxWeakCount>5</maxWeakCount>
      <stageThreshold>-7.8820973634719849e-01</stageThreshold>
      <weakClassifiers>
        <_>
          <internalNodes>
            0 -1 7 -1.7961135506629944e-01</internalNodes>
          <leafValues>
            7.6620233058929443e-01 -9.0106004476547241e-01</leafValues></_>
        <_>
          <internalNodes>
            0 -1 11 2.2651473060250282e-02</internalNodes>
          <leafValues>
            -7.5228643417358398e-01 7.8490656614303589e-01</leafValues></_>
        <_>
          <internalNodes>
            0 -1 2 -2.9428243637084961e-01</internalNodes>
          <leafValues>
            7.4229669570922852e-01 -8.0296701192855835e-01</leafValues></_>
        <_>
          <internalNodes>
            0 -1 12 1.8558483134256676e-05</internalNodes>
          <leafValues>
            -8.4481757879257202e-01 7.5409168004989624e-01</leafValues></_>
        <_>
          <internalNodes>
            0 -1 17 5.0731413066387177e-03</internalNodes>
          <leafValues>
            -6.9153398275375366e-01 8.0647927522659302e-01</leafValues></_></weakClassifiers></_></stages>
  <features>
    <_>
      <rects>
        <_>
          0 5 2 10 -1.</_>
        <_>
          1 5 1 10 2.</_></rects>
      <tilted>0</tilted></_>
    <_>
      <rects>
        <_>
          0 7 6 6 -1.</_>
        <_>
          2 7 2 6 3.</_></rects>
      <tilted>0</tilted></_>
    <_>
      <rects>
        <_>
          1 5 18 6 -1.</_>
        <_>
          7 5 6 6 3.</_></rects>
      <tilted>0</tilted></_>
    <_>
      <rects>
        <_>
          1 6 18 3 -1.</_>
        <_>
          7 6 6 3 3.</_></rects>
      <tilted>0</tilted></_>
    <_>
      <rects>
        <_>
          3 0 13 2 -1.</_>
        <_>
          3 1 13 1 2.</_></rects>
      <tilted>0</tilted></_>
    <_>
      <rects>
        <_>
          3 18 14 2 -1.</_>
        <_>
          3 19 14 1 2.</_></rects>
      <tilted>0</tilted></_>
    <_>
      <rects>
        <_>
          4 3 12 14 -1.</_>
        <_>
          4 10 12 7 2.</_></rects>
      <tilted>0</tilted></_>
    <_>
      <rects>
        <_>
          4 7 12 12 -1.</_>
        <_>
          4 11 12 4 3.</_></rects>
      <tilted>0</tilted></_>
    <_>
      <rects>
        <_>
          4 8 4 2 -1.</_>
        <_>
          6 8 2 2 2.</_></rects>
      <tilted>0</tilted></_>
    <_>
      <rects>
        <_>
          5 10 10 9 -1.</_>
        <_>
          5 13 10 3 3.</_></rects>
      <tilted>0</tilted></_>
    <_>
      <rects>
        <_>
          6 0 1 12 -1.</_>
        <_>
          6 4 1 4 3.</_></rects>
      <tilted>0</tilted></_>
    <_>
      <rects>
        <_>
          6 16 7 3 -1.</_>
        <_>
          6 17 7 1 3.</_></rects>
      <tilted>0</tilted></_>
    <_>
      <rects>
        <_>
          7 8 2 1 -1.</_>
        <_>
          8 8 1 1 2.</_></rects>
      <tilted>0</tilted></_>
    <_>
      <rects>
        <_>
          7 16 7 3 -1.</_>
        <_>
          7 17 7 1 3.</_></rects>
      <tilted>0</tilted></_>
    <_>
      <rects>
        <_>
          8 0 4 6 -1.</_>
        <_>
          8 2 4 2 3.</_></rects>
      <tilted>0</tilted></_>
    <_>
      <rects>
        <_>
          12 0 1 9 -1.</_>
        <_>
          12 3 1 3 3.</_></rects>
      <tilted>0</tilted></_>
    <_>
      <rects>
        <_>
          13 1 1 16 -1.</_>
        <_>
          13 9 1 8 2.</_></rects>
      <tilted>0</tilted></_>
    <_>
      <rects>
        <_>
          13 6 2 4 -1.</_>
        <_>
          13 6 1 2 2.</_>
        <_>
          14 8 1 2 2.</_></rects>
      <tilted>0</tilted></_>
    <_>
      <rects>
        <_>
          14 9 6 4 -1.</_>
        <_>
          16 9 2 4 3.</_></rects>
      <tilted>0</tilted></_></features></cascade>
</opencv_storage>
