<?xml version="1.0"?>
<opencv_storage>
<stage5>
  <maxWeakCount>5</maxWeakCount>
  <stageThreshold>-7.8820973634719849e-01</stageThreshold>
  <weakClassifiers>
    <_>
      <internalNodes>
        0 -1 31917 -1.7961135506629944e-01</internalNodes>
      <leafValues>
        7.6620233058929443e-01 -9.0106004476547241e-01</leafValues></_>
    <_>
      <internalNodes>
        0 -1 44997 2.2651473060250282e-02</internalNodes>
      <leafValues>
        -7.5228643417358398e-01 7.8490656614303589e-01</leafValues></_>
    <_>
      <internalNodes>
        0 -1 11006 -2.9428243637084961e-01</internalNodes>
      <leafValues>
        7.4229669570922852e-01 -8.0296701192855835e-01</leafValues></_>
    <_>
      <internalNodes>
        0 -1 48216 1.8558483134256676e-05</internalNodes>
      <leafValues>
        -8.4481757879257202e-01 7.5409168004989624e-01</leafValues></_>
    <_>
      <internalNodes>
        0 -1 69981 5.0731413066387177e-03</internalNodes>
      <leafValues>
        -6.9153398275375366e-01 8.0647927522659302e-01</leafValues></_></weakClassifiers></stage5>
</opencv_storage>
